34 128
34 0.01541308 -0.2131762 0.0039598825 0.10756358 0.06398388 -0.07520186 0.10932038 -0.11254969 0.0043707998 0.07605495 -0.15432996 0.12595251 0.0649228 -0.111132026 -0.07664303 -0.25421518 0.0028052868 -0.11496129 -0.050463684 0.27202725 0.24774444 -0.008119679 0.31121874 0.056257572 -0.0066222656 -0.054531205 -0.06277417 -0.06478573 -0.071891814 0.21090391 0.026811296 0.10249671 -0.08627414 0.0080806315 -0.13241911 -0.04029601 0.08732674 0.11663223 -0.028803429 -0.039389856 -0.17019361 0.21229939 0.0026401365 0.045146074 -0.008885776 0.1656192 -0.023108456 -0.079583414 -0.033044163 0.001092058 -0.017876906 0.14600925 0.053910933 0.085552834 -0.07952267 -0.023859516 -0.06794288 -0.0365996 0.047570508 0.032186132 0.023069212 -0.10498654 -0.0024454233 0.1102247 0.022654396 -0.22083127 -0.016759062 -0.04173843 0.07619496 0.016644925 -0.025335165 0.061938494 -0.035346493 0.008800924 -0.01982006 -0.08880167 -0.023605738 0.18528691 0.016040195 0.05992709 -0.12565568 -0.108854026 0.030462075 -0.23271658 -0.07176512 0.23624472 -0.041692458 0.038029592 -0.20136616 0.008701316 -0.020715855 0.043918367 0.19721016 -0.15010814 -0.091757506 0.34546626 -0.16284849 0.18776087 0.09945955 -0.18344162 -0.19828911 0.20523629 -0.17905769 -0.107478596 -0.02290513 0.031319126 0.19465041 0.062276173 -0.05328307 -0.06490127 -0.029925812 -0.14146267 -0.03419286 -0.13619424 0.0015890802 -0.060161524 -0.013116927 0.07123312 -0.06800577 0.13287482 -0.06692975 -0.1597715 0.019210793 -0.14413442 -0.010679445 0.16294897 -0.08520711 0.058168422
1 -0.03514646 -0.28945416 0.018997997 -0.03421806 0.043121558 -0.14522831 0.083938815 0.040659342 0.122126915 0.06313396 -0.12658976 0.1675454 0.08236969 -0.16077009 0.050634198 -0.24660267 -0.035792638 -0.13469031 0.00059999194 0.065369435 0.25638866 -0.015276106 0.2092565 0.08980312 0.07350825 -0.031263333 -0.018092545 0.012659295 0.04893119 0.12080225 0.041931134 0.14591701 -0.11955648 0.069746114 -0.082763635 -0.120108046 0.07144569 0.09137858 0.058414564 -0.019937353 -0.16564612 0.13583812 0.04931752 0.11013678 -0.17840484 0.13825372 0.03214967 -0.046706334 0.129322 0.05982517 -0.16022296 0.11371243 0.05447647 0.245501 -0.21895914 -0.066865064 -0.031111145 0.021663656 -0.02582611 0.023275925 0.06700134 -0.12251817 -0.0398937 0.13186294 -0.11918007 -0.037507642 0.0056067035 -0.032193176 0.06498963 -0.12283273 -0.15563864 0.0012432076 -0.03264113 -0.041036017 0.11125606 0.023854544 0.061637983 0.03502585 0.026033733 -0.20330855 -0.19321708 -0.017102718 0.009921892 -0.18585868 -0.18687858 0.03401727 0.11008946 -0.0008711772 -0.017705794 0.041262995 0.11226571 0.01989535 0.21717139 -0.13390163 -0.23518573 0.19081703 -0.0860049 -0.06179105 0.0730015 0.02756985 -0.13628326 0.14909886 -0.22686112 -0.10559921 -0.03775494 0.014542521 0.16428423 0.0003412558 -0.08252639 -0.10540896 -0.03709417 0.030891238 0.025271999 0.000786401 -0.14888608 -0.024517603 0.045497432 0.15848964 -0.10264629 0.020173403 -0.072381094 -0.12666075 0.13164462 -0.1753716 -0.15853679 -0.024545185 -0.03183484 0.12820598
33 0.012237225 -0.2102344 0.0065636444 0.1091674 0.06825082 -0.08150929 0.1054073 -0.10940325 0.010924525 0.07439262 -0.14740898 0.1265407 0.06349946 -0.11602205 -0.071100146 -0.25063235 -0.0018984837 -0.11268227 -0.05349123 0.26939863 0.25089636 -0.0070888894 0.30782595 0.056715406 -0.009914908 -0.050645716 -0.06650456 -0.063706174 -0.06818584 0.21343225 0.021185484 0.1085377 -0.083271325 0.014086261 -0.13772324 -0.048556063 0.08361089 0.11445259 -0.034689274 -0.034936693 -0.17046976 0.20882532 0.0015864503 0.039283313 -0.009487918 0.17093174 -0.028061993 -0.08072587 -0.04045899 0.00024025796 -0.024512243 0.15276502 0.056312542 0.08054213 -0.08620631 -0.021198792 -0.071020484 -0.035745353 0.04839337 0.034561448 0.030208908 -0.11497137 -0.0024600655 0.11214202 0.024520067 -0.22489628 -0.006205753 -0.042457547 0.07440035 0.02221933 -0.018394507 0.059420314 -0.031993434 0.0126133 -0.02305522 -0.084962964 -0.018898156 0.17975141 0.018865988 0.05545395 -0.115431115 -0.110468835 0.029155262 -0.2373075 -0.07293877 0.23719102 -0.044259153 0.03530963 -0.19885927 0.0062093125 -0.013786934 0.049223337 0.19915915 -0.15227707 -0.08984907 0.35146147 -0.16889593 0.18284452 0.10923542 -0.18154168 -0.20878871 0.20130214 -0.18664299 -0.099029206 -0.019109922 0.029456427 0.20193523 0.066905074 -0.050129183 -0.07395425 -0.036796622 -0.14409038 -0.03243515 -0.14615951 -0.0016657031 -0.058529537 -0.012305159 0.0706446 -0.07416181 0.12852107 -0.065069765 -0.16561668 0.020972196 -0.15197432 -0.010465002 0.16145681 -0.09731912 0.05619592
3 -0.019233225 -0.2477826 0.018702129 0.025962302 0.0521352 -0.11302462 0.092370875 -0.028490322 0.06143669 0.06747759 -0.12844823 0.143072 0.06556387 -0.13845128 -0.0068003275 -0.24402489 -0.01619475 -0.1237286 -0.020625748 0.14802727 0.24101399 -0.00926266 0.23814647 0.07486501 0.04055084 -0.037275653 -0.030996311 -0.010979539 0.006113176 0.1583935 0.02969893 0.11813358 -0.10341153 0.053337134 -0.101806425 -0.085162796 0.078943454 0.10559454 0.026423015 -0.019756433 -0.15872806 0.15856105 0.026410818 0.08169433 -0.10163817 0.14536603 0.009847444 -0.066130474 0.04701092 0.033795174 -0.09274047 0.11613441 0.053043626 0.16959243 -0.16103175 -0.04700703 -0.04972392 -0.005142064 0.0007404208 0.03069274 0.0430064 -0.11280609 -0.024408443 0.12130083 -0.053221542 -0.11722062 0.0022014598 -0.0376674 0.069211625 -0.06448661 -0.09375854 0.025930367 -0.034462534 -0.015021771 0.055919427 -0.02320015 0.033604763 0.0963935 0.025656007 -0.08662611 -0.15977582 -0.055182524 0.014036677 -0.204993 -0.13103916 0.12566403 0.04481584 0.014096201 -0.096195325 0.02138653 0.052041877 0.032017004 0.19732895 -0.13827942 -0.17290322 0.253691 -0.12735324 0.050597772 0.08521872 -0.061081126 -0.16376033 0.16522028 -0.2077912 -0.10137748 -0.027997881 0.024927525 0.17031796 0.024350073 -0.0663148 -0.09256983 -0.032519862 -0.04456006 0.00019245388 -0.056884803 -0.0798444 -0.03285936 0.017604742 0.11931581 -0.07899171 0.067208566 -0.07089012 -0.14466225 0.076113686 -0.15886512 -0.09178417 0.05508835 -0.05426756 0.09328066
2 -0.01483902 -0.25923753 0.013124362 0.006899824 0.045916524 -0.11842492 0.09047731 -0.0072606215 0.07787824 0.06572623 -0.1303382 0.15390073 0.07362158 -0.14349476 0.012600359 -0.24311076 -0.027299203 -0.12172681 -0.017090468 0.12537985 0.24761404 -0.011065601 0.23374286 0.07716993 0.044940796 -0.035687655 -0.030620364 -0.008141433 0.016142316 0.14663596 0.039272618 0.12634328 -0.10980062 0.057084486 -0.097070195 -0.08989854 0.07414893 0.093384646 0.03370917 -0.021408368 -0.15593518 0.15450878 0.032957453 0.086072795 -0.121463895 0.14178234 0.012756132 -0.058131833 0.07439935 0.03680386 -0.11250917 0.11028501 0.05727089 0.19126844 -0.17512918 -0.050629526 -0.039935388 0.0039131474 -0.005246848 0.028471632 0.04827441 -0.11023092 -0.026355784 0.1152032 -0.071202226 -0.08575738 0.0008933457 -0.038249027 0.06413989 -0.07997179 -0.11291708 0.018553609 -0.03010333 -0.024725681 0.069907665 -0.0048230193 0.038367487 0.076556355 0.022884434 -0.12039121 -0.16734168 -0.044665977 0.009730162 -0.19071831 -0.14354315 0.0979126 0.061957583 0.008405006 -0.0675958 0.02594306 0.07203105 0.028414557 0.19930881 -0.13815615 -0.18933764 0.22916493 -0.11009525 0.012855918 0.07404991 -0.030713923 -0.1456792 0.15290907 -0.20501436 -0.10377544 -0.033635724 0.012181175 0.16918327 0.021476453 -0.07414678 -0.093848936 -0.03783323 -0.019011294 0.00761625 -0.044651035 -0.102146745 -0.03217424 0.025919698 0.12837023 -0.09140814 0.053335767 -0.07036398 -0.13615221 0.0961838 -0.16379304 -0.10717416 0.032483198 -0.04197999 0.102524444
4 -0.027905742 -0.27210477 0.018339435 -0.010329995 0.04718363 -0.13282275 0.08222352 0.012649851 0.09562671 0.06575402 -0.1232346 0.16222794 0.07586559 -0.1491127 0.026956541 -0.24528085 -0.029782565 -0.13059583 -0.0066816513 0.102200165 0.24896711 -0.012662724 0.21327093 0.07755078 0.05830049 -0.028326519 -0.021766039 0.009463317 0.037008617 0.1296932 0.03530139 0.12786552 -0.11086036 0.06536165 -0.08955 -0.102139264 0.078388005 0.10175348 0.051412527 -0.0139127895 -0.15858975 0.1427935 0.04149489 0.10206329 -0.14171177 0.13829902 0.022346828 -0.05985163 0.08990933 0.042739246 -0.12965068 0.10347279 0.058006603 0.21425699 -0.19722195 -0.05420463 -0.037292175 0.0092997 -0.013866514 0.023575526 0.05956018 -0.11963635 -0.031760793 0.12343205 -0.08659293 -0.063246824 -0.0012015156 -0.036626656 0.066479705 -0.10210802 -0.13037181 0.01166253 -0.028208962 -0.035792585 0.092231095 0.0063501163 0.05616725 0.06258673 0.020911146 -0.14987203 -0.17757004 -0.03837039 0.0074039516 -0.18992692 -0.16144319 0.07304979 0.090672515 0.00042704243 -0.045048997 0.03194769 0.08503869 0.022059767 0.20080592 -0.13799128 -0.21011467 0.21427833 -0.10815912 -0.017568551 0.07308353 -0.009545414 -0.14500836 0.1517947 -0.21483207 -0.09918447 -0.03692151 0.016794616 0.15896448 0.008991421 -0.08066115 -0.10316561 -0.03148853 0.00025607256 0.014880357 -0.020438317 -0.11806151 -0.022074306 0.031288024 0.14228003 -0.09202996 0.038529612 -0.07009703 -0.13327853 0.10412527 -0.1683337 -0.1307188 0.006937643 -0.03495799 0.11349769
32 0.008006644 -0.23055357 -0.0007001222 0.0880449 0.062178604 -0.0867602 0.10627114 -0.09967165 0.019371912 0.07636625 -0.14987332 0.13769193 0.06727558 -0.11792861 -0.059606418 -0.25177738 -0.0057863565 -0.12019256 -0.05022785 0.25089297 0.25339207 -0.003134972 0.29426062 0.06301783 -0.005247148 -0.048032284 -0.06255194 -0.05171267 -0.05282485 0.19811542 0.025285037 0.108549826 -0.08287784 0.019269764 -0.13238268 -0.05280247 0.08698126 0.11785228 -0.019836621 -0.041188847 -0.16872448 0.20270927 0.0014200578 0.048579913 -0.033430297 0.1668545 -0.019152291 -0.06854201 -0.015882416 -0.003155921 -0.03831619 0.14199126 0.050516386 0.105288886 -0.0987777 -0.02721593 -0.061391238 -0.030910492 0.035446387 0.030820891 0.030602798 -0.10948622 -0.006464359 0.118328616 -0.0027699256 -0.19839004 -0.015985688 -0.035830215 0.073303126 -0.0025047855 -0.045100167 0.05991624 -0.031275872 -0.0009087473 -0.005923207 -0.069888994 -0.013389816 0.16518468 0.016530594 0.025031125 -0.13285524 -0.09730147 0.032868188 -0.22659388 -0.087068036 0.21295974 -0.02151254 0.03258721 -0.17361854 0.005609528 0.000566658 0.045143284 0.20536971 -0.15542814 -0.105320334 0.3266757 -0.15443812 0.15777178 0.092995234 -0.16214581 -0.1899012 0.19427451 -0.19047874 -0.104219265 -0.017591452 0.036182683 0.19370335 0.054413553 -0.05988496 -0.06971807 -0.03135343 -0.12578598 -0.022481563 -0.11732653 -0.014573146 -0.052916087 -0.0077528153 0.08055915 -0.06260685 0.11250079 -0.06583678 -0.16139609 0.027376387 -0.14423724 -0.01740137 0.1327873 -0.08845103 0.0671738
14 -0.024469513 -0.26400846 0.020385941 0.0051282584 0.050097745 -0.11975233 0.08529901 -0.008981015 0.081524774 0.06712231 -0.1302532 0.15420274 0.0681131 -0.13848285 0.014091921 -0.2362374 -0.023514984 -0.12235799 -0.012890214 0.11820224 0.24225388 -0.009149708 0.22182731 0.0756663 0.045721564 -0.031681184 -0.023535486 -0.0018622883 0.013029521 0.1418516 0.036821347 0.12655088 -0.10359304 0.057797737 -0.08927993 -0.09209559 0.07412729 0.09946076 0.03336968 -0.018108102 -0.16109928 0.15111831 0.035082933 0.088821016 -0.121437885 0.14209937 0.017351475 -0.05615602 0.07219465 0.042597663 -0.117356144 0.1137646 0.05539706 0.1885098 -0.17313303 -0.052486293 -0.04582941 0.0044159535 -0.008519799 0.023539346 0.05164758 -0.117344625 -0.0241258 0.11586179 -0.0739378 -0.08546153 0.002954868 -0.04023245 0.06526182 -0.08199043 -0.11350643 0.019478997 -0.035781175 -0.02033906 0.0748694 -0.0039994903 0.04029975 0.07552463 0.020025352 -0.122812636 -0.16524011 -0.042602852 0.014310143 -0.18829685 -0.14831202 0.09582528 0.06355192 0.0059232237 -0.06662257 0.026985344 0.07002631 0.024425313 0.19978122 -0.13398977 -0.18700804 0.23025146 -0.11215883 0.016176023 0.07972287 -0.030227074 -0.1525108 0.15611187 -0.21144558 -0.096831724 -0.036040604 0.019070929 0.17048933 0.020888701 -0.07552331 -0.09830999 -0.038122863 -0.021654895 0.0040419986 -0.040529713 -0.09730072 -0.03195726 0.02293224 0.12838696 -0.090824805 0.05386644 -0.068731144 -0.13773452 0.09504653 -0.1644754 -0.11020066 0.02714611 -0.050018802 0.10229769
24 0.010988564 -0.21985166 0.0063398434 0.08539412 0.05857148 -0.08450286 0.10131841 -0.087237485 0.025251668 0.07301262 -0.1394776 0.12886201 0.06781902 -0.11809185 -0.052809827 -0.24448986 -0.0068985177 -0.11667145 -0.042071685 0.23136985 0.24401726 -0.006960758 0.2844455 0.06610432 0.005013577 -0.04495695 -0.059296153 -0.05447036 -0.05125791 0.19454353 0.023963017 0.10804287 -0.089446396 0.015565021 -0.1238126 -0.055591043 0.08410166 0.106934816 -0.017246014 -0.040667407 -0.1607091 0.19508897 0.0054001706 0.051834416 -0.035362322 0.16177231 -0.020064147 -0.06443603 -0.007055396 0.0038630147 -0.037515815 0.13828911 0.04679661 0.1083586 -0.09356073 -0.023770249 -0.055452473 -0.027501462 0.033587243 0.029330365 0.030066617 -0.10622632 -0.0033062748 0.112251006 -0.006063535 -0.18803224 -0.0129378745 -0.03334261 0.068796024 -0.00292555 -0.043747142 0.055133983 -0.037031405 0.0007761066 0.00013970764 -0.0674562 -0.014438419 0.15229833 0.016188763 0.018819325 -0.1271454 -0.08617878 0.02905624 -0.2128681 -0.08974231 0.19281092 -0.019985875 0.034306575 -0.16334939 0.012175865 0.0031602927 0.04089885 0.1993625 -0.14760166 -0.10714603 0.31593895 -0.14282307 0.14354967 0.09253598 -0.14833882 -0.1866136 0.19438538 -0.18245381 -0.100145064 -0.022955835 0.03211415 0.18682006 0.053683825 -0.0539852 -0.06876456 -0.028317915 -0.11391308 -0.02305128 -0.1127049 -0.02675209 -0.053656776 -0.0050798696 0.0769909 -0.06652623 0.11072764 -0.063651256 -0.15446384 0.03615062 -0.1468122 -0.026550654 0.12780584 -0.07774508 0.06940839
28 -0.0028204648 -0.22210445 0.0108368 0.06434413 0.053527612 -0.08455819 0.09510032 -0.06856318 0.032845687 0.06774264 -0.13319899 0.13197379 0.0626105 -0.1136314 -0.03953658 -0.23509237 -0.009372484 -0.11699081 -0.034317337 0.20355724 0.23129073 -0.008572117 0.26182237 0.061328173 0.01097062 -0.040573295 -0.052491084 -0.037709393 -0.031431165 0.1726834 0.025817297 0.1092263 -0.08264174 0.027397793 -0.11285514 -0.06278821 0.07984489 0.10607003 -0.0036577985 -0.030738361 -0.15914933 0.17534038 0.014427311 0.060126837 -0.055090543 0.14851108 -0.012274905 -0.06513323 0.004193857 0.010948218 -0.057840873 0.12949751 0.05219164 0.11630237 -0.10757335 -0.03181895 -0.058090575 -0.023848541 0.021306457 0.02996731 0.03401489 -0.10798336 -0.006261903 0.11395447 -0.015279606 -0.16208425 -0.009297366 -0.031387497 0.06470685 -0.025649276 -0.057742227 0.04696105 -0.035687108 -0.008017004 0.013552388 -0.05171387 0.000109746354 0.13653281 0.013035674 -0.009110686 -0.13256255 -0.08049762 0.025361354 -0.20354334 -0.09832089 0.17334443 0.00087118836 0.02846766 -0.14024068 0.015733104 0.019074846 0.036350258 0.18988036 -0.141582 -0.11829611 0.28506097 -0.1346591 0.11418262 0.08760163 -0.12243237 -0.17365882 0.181438 -0.18908791 -0.09970076 -0.02053111 0.030340895 0.18056762 0.046310868 -0.055837706 -0.078129776 -0.029637966 -0.08834705 -0.019399524 -0.09525457 -0.036226824 -0.047584634 -0.00064008066 0.086406715 -0.07166822 0.0915072 -0.06396352 -0.14701892 0.047719456 -0.1424333 -0.04939016 0.09863453 -0.06902619 0.0752505
7 -0.031117018 -0.3048419 0.013057226 -0.05467942 0.03174076 -0.14653221 0.088009916 0.06884019 0.14366607 0.05905809 -0.124183245 0.17177092 0.079895355 -0.16762085 0.08160932 -0.2343525 -0.041536056 -0.13552958 0.0020930606 0.020946937 0.25032297 -0.022280049 0.18680418 0.094103284 0.09605016 -0.037891105 -0.015816746 0.01639234 0.061990645 0.10624941 0.055008568 0.1544738 -0.13227119 0.07132473 -0.07214674 -0.13103853 0.06985814 0.08301832 0.06673138 -0.017775362 -0.16955951 0.13102832 0.059793867 0.12513688 -0.2075412 0.13749066 0.052588288 -0.04452408 0.16288833 0.07614847 -0.18429661 0.11146882 0.05580952 0.2743979 -0.23975252 -0.07653565 -0.026807243 0.025654167 -0.02345295 0.022004858 0.07348848 -0.11600226 -0.043443423 0.13574019 -0.1397389 -0.0051697 0.008505174 -0.028230295 0.07086513 -0.1540851 -0.18278314 -0.0033556824 -0.046292495 -0.04722209 0.13932438 0.04569229 0.07063411 0.013349575 0.024011211 -0.25171092 -0.2066508 0.009443291 0.0047536045 -0.16640148 -0.20779383 -0.006024912 0.13699627 -0.00389495 0.0071658953 0.055222247 0.13984472 0.011332745 0.21999669 -0.12536676 -0.26028255 0.16498744 -0.062451407 -0.11169756 0.059944656 0.06514536 -0.116991915 0.13629778 -0.23767745 -0.10996569 -0.047995027 -0.001225654 0.1466065 -0.016527474 -0.079637684 -0.10705524 -0.03043864 0.07568558 0.030144801 0.01949104 -0.17491856 -0.016763113 0.052722983 0.16716313 -0.111664206 0.009892651 -0.07472394 -0.1084833 0.16577436 -0.17419352 -0.19167748 -0.058723718 -0.0064233514 0.1437351
9 -0.017240215 -0.261612 0.010021502 0.021650769 0.05115129 -0.11696913 0.093219295 -0.019282535 0.08042975 0.067340404 -0.1328323 0.15764321 0.07021216 -0.14244807 0.0033457342 -0.24547333 -0.026241349 -0.120991625 -0.023789532 0.14258558 0.23961183 -0.008633827 0.24002457 0.067897186 0.039097343 -0.035169225 -0.035337474 -0.01937922 0.0013315016 0.15196367 0.036887687 0.1281771 -0.105886996 0.04517358 -0.0942748 -0.08873021 0.08177918 0.10306872 0.019652242 -0.018557183 -0.16924152 0.16204011 0.033328857 0.08681143 -0.11317135 0.14707163 0.013775299 -0.065237515 0.05791648 0.032255735 -0.10863958 0.1256439 0.054928847 0.17877857 -0.15996721 -0.051499747 -0.05099992 -0.0035166475 0.004315942 0.022563625 0.050900478 -0.11748772 -0.025448786 0.12237984 -0.056901872 -0.110594586 0.00043474592 -0.039101813 0.0686317 -0.070462406 -0.09992702 0.02827529 -0.03136895 -0.022211427 0.06642579 -0.019255184 0.029128775 0.09725275 0.015746046 -0.09675292 -0.1595633 -0.053486705 0.011257244 -0.20712122 -0.14392635 0.11503572 0.053196177 0.012656428 -0.09138338 0.028968066 0.06367715 0.027656823 0.21088791 -0.13441448 -0.18036789 0.24918954 -0.117177285 0.036693323 0.08322907 -0.05122794 -0.16344498 0.1626253 -0.21506035 -0.10257081 -0.03427371 0.017218737 0.17447658 0.028114261 -0.07696153 -0.09948903 -0.031797927 -0.034160107 0.0028262313 -0.060970455 -0.08868912 -0.03733452 0.015390678 0.13025072 -0.09422712 0.0710701 -0.07284079 -0.14545107 0.08973588 -0.16688742 -0.10586207 0.052289534 -0.053340793 0.10359829
30 0.01048453 -0.22082952 0.0023995526 0.0836868 0.05408523 -0.084778465 0.101173766 -0.08458983 0.026879668 0.072614424 -0.14589745 0.12758093 0.06426262 -0.1202087 -0.051118966 -0.24744518 -0.006364077 -0.11505442 -0.046707373 0.22930811 0.24421193 -0.010269921 0.28503093 0.059750356 0.0075940657 -0.048609346 -0.052386016 -0.05034624 -0.052805062 0.19376847 0.023416756 0.10642003 -0.086944625 0.016278941 -0.12500511 -0.05530186 0.078951836 0.11026672 -0.017251005 -0.040257476 -0.16498557 0.19320235 0.00930285 0.056075864 -0.036399394 0.16401634 -0.016490445 -0.07264445 -0.008831804 0.012115468 -0.04614314 0.14395899 0.05462872 0.102657035 -0.09888576 -0.027392656 -0.06431595 -0.025983324 0.03599423 0.03128632 0.03519893 -0.11266051 -0.0012937688 0.111932464 0.0030450928 -0.18735737 -0.010585666 -0.037321698 0.071923055 -0.0072600753 -0.041243125 0.050549 -0.03253775 0.0002332096 0.003086187 -0.06972028 -0.0059678038 0.15448949 0.018253848 0.015653139 -0.13214238 -0.09149857 0.021995183 -0.2193002 -0.08957585 0.19659878 -0.020155016 0.030510454 -0.16779277 0.0149383005 0.0108369775 0.035269067 0.19855055 -0.14350903 -0.10905769 0.3145278 -0.15014768 0.14104779 0.09981267 -0.14453818 -0.18417495 0.19054945 -0.18767367 -0.10335231 -0.023713881 0.027208311 0.19055629 0.055043988 -0.05750701 -0.07668615 -0.036878765 -0.11507731 -0.027289039 -0.11830327 -0.022947617 -0.05539487 -0.007264125 0.08085042 -0.075450376 0.111108616 -0.06906348 -0.15134016 0.039553963 -0.15150103 -0.032188173 0.12943605 -0.07677975 0.069955416
8 -0.02668017 -0.26773083 0.019845944 -0.013348412 0.040628422 -0.12446765 0.08227338 0.01399448 0.09422021 0.066078186 -0.122904725 0.15469314 0.067679 -0.14173724 0.033154342 -0.23380709 -0.027831605 -0.12153614 -0.0021390356 0.09177547 0.23519972 -0.012724845 0.20359388 0.072466396 0.058029033 -0.026132138 -0.017436033 0.01009033 0.031865444 0.12783104 0.037334222 0.12969951 -0.10865169 0.066072695 -0.08344913 -0.09960386 0.07537521 0.09389871 0.051610906 -0.0113837365 -0.15673625 0.14107609 0.03727862 0.09917878 -0.14179544 0.1389812 0.022848938 -0.056537353 0.09265484 0.049782973 -0.1361368 0.10368282 0.059815858 0.21377715 -0.19636984 -0.056577865 -0.04095641 0.009129188 -0.016137522 0.02167784 0.05374169 -0.1179665 -0.033891574 0.120785415 -0.08860005 -0.06509229 0.0061218794 -0.03942999 0.06560954 -0.10240965 -0.1338334 0.0077713397 -0.033856086 -0.03084287 0.089890845 0.010144467 0.05045141 0.056945775 0.02221493 -0.15612124 -0.17360666 -0.035216734 0.0053282976 -0.18470249 -0.16447085 0.071383625 0.09006743 0.0024905452 -0.044191178 0.029701594 0.0886988 0.018931545 0.19962281 -0.13263601 -0.20810306 0.20279418 -0.10147141 -0.024193892 0.06819143 -0.0064641726 -0.13728723 0.14428167 -0.21831612 -0.102440685 -0.03316471 0.009644693 0.16021566 0.0034968893 -0.07880551 -0.10279745 -0.038261477 0.0070605213 0.016395627 -0.020889264 -0.12244768 -0.022807825 0.031229721 0.13974363 -0.095579974 0.03774902 -0.072542906 -0.13097802 0.1115315 -0.16069669 -0.12825708 0.00039453525 -0.034674354 0.107867606
6 -0.03993817 -0.33392668 0.019441564 -0.06426608 0.035918918 -0.16501425 0.09439609 0.087797455 0.15876201 0.061983697 -0.12454468 0.18430203 0.08416619 -0.17705469 0.09729729 -0.24579537 -0.05054009 -0.14664248 0.01037761 -0.0008822754 0.26074505 -0.025531914 0.18445827 0.09550147 0.10755934 -0.036738906 -0.007879894 0.021924492 0.077815235 0.104458146 0.05684441 0.15756357 -0.13310862 0.080289714 -0.06385356 -0.14216721 0.076546334 0.091668114 0.074394844 -0.019482573 -0.17172208 0.12803952 0.069305904 0.13020387 -0.2367163 0.13774806 0.062084835 -0.043925222 0.18616848 0.08681355 -0.20258892 0.11206544 0.054078657 0.29421654 -0.25244802 -0.088651575 -0.024496226 0.03243244 -0.033441838 0.013219687 0.084236175 -0.119869314 -0.04709724 0.140502 -0.15817094 0.009927624 0.0034617083 -0.031609125 0.06810852 -0.17477441 -0.1991495 -0.012433941 -0.048291452 -0.05341475 0.16052437 0.058234744 0.08294025 -0.0016002327 0.022241253 -0.2820551 -0.22335301 0.020809112 0.0068468433 -0.16618852 -0.22164296 -0.02972715 0.16326456 -0.010087259 0.02852114 0.059151072 0.15692665 0.009442044 0.2298204 -0.12244895 -0.28123993 0.15156817 -0.055547643 -0.14118153 0.06402173 0.088096395 -0.1087363 0.13368185 -0.24794807 -0.11192183 -0.054096613 0.004108248 0.15359135 -0.019615425 -0.087136984 -0.11682905 -0.0305392 0.09418052 0.036426622 0.038303103 -0.19293037 -0.011163711 0.06148425 0.18263894 -0.11542716 -0.0059626214 -0.074911736 -0.115503065 0.18522868 -0.19165717 -0.21585721 -0.076730564 -0.0019116271 0.15075941
31 -0.009079888 -0.24040768 0.016151424 0.039394565 0.050629813 -0.109763615 0.0929799 -0.04160204 0.057050966 0.06920581 -0.13078761 0.14795351 0.07161791 -0.13419425 -0.012698475 -0.24580094 -0.021469552 -0.119826354 -0.024128214 0.1652623 0.24166918 -0.013333614 0.24551168 0.071079664 0.03224034 -0.036564954 -0.03563756 -0.019759178 -0.010095418 0.15912542 0.029156793 0.12031128 -0.099703826 0.042419318 -0.10183116 -0.07401708 0.07718509 0.102689594 0.017471872 -0.028320506 -0.16087966 0.16883476 0.024569867 0.072891116 -0.08774631 0.14746323 0.001804697 -0.066301376 0.038824838 0.029661596 -0.08922166 0.1254366 0.054655775 0.15249059 -0.14132172 -0.04370986 -0.050622657 -0.011715857 0.00696228 0.023719532 0.047393546 -0.11391675 -0.020409832 0.11302875 -0.044534486 -0.12917505 -0.007868475 -0.03985319 0.06574683 -0.052881893 -0.0846578 0.02865763 -0.03303749 -0.014574196 0.048636865 -0.030505475 0.024642931 0.10834524 0.022179034 -0.065106496 -0.15122868 -0.06468626 0.015993295 -0.20713714 -0.124844305 0.13667053 0.030553611 0.013656788 -0.10759594 0.01960823 0.04095543 0.03452644 0.20408358 -0.1393444 -0.16273212 0.26587337 -0.12851655 0.06556965 0.08531377 -0.07454384 -0.168583 0.17132677 -0.20278671 -0.10380301 -0.031573676 0.022560276 0.17803314 0.035058033 -0.06540853 -0.08846388 -0.03576533 -0.05907109 -0.008261155 -0.07427192 -0.06869844 -0.036754757 0.009360291 0.11645305 -0.08897361 0.0794681 -0.07091207 -0.14726527 0.07212697 -0.16360225 -0.08384723 0.0715318 -0.062357873 0.09100671
5 -0.02665656 -0.30836514 0.009100187 -0.02959268 0.04502444 -0.1457616 0.096931666 0.037353486 0.12832187 0.060830757 -0.1263629 0.17374513 0.07653425 -0.158873 0.05942847 -0.245613 -0.041756947 -0.13572964 -0.0066396315 0.06133096 0.25675198 -0.014816609 0.20447932 0.092303865 0.07943332 -0.040176228 -0.020860968 0.0013429564 0.042969473 0.12320837 0.04584291 0.14630127 -0.12703918 0.0674337 -0.0771804 -0.12266614 0.07594559 0.09298717 0.051534697 -0.021069117 -0.1653149 0.14374128 0.04887306 0.111018375 -0.1837958 0.14355984 0.039687704 -0.050450407 0.13309605 0.061357036 -0.16263796 0.12095512 0.05989879 0.24210243 -0.21291743 -0.07307716 -0.030836066 0.017119605 -0.013876703 0.015611474 0.06670562 -0.12063499 -0.03559194 0.13326071 -0.11933146 -0.037659317 0.0067428 -0.034754682 0.0720885 -0.12918171 -0.16047643 0.004613759 -0.0425253 -0.044803288 0.11788814 0.022902474 0.05728073 0.033505447 0.01917562 -0.20886552 -0.19903976 -0.010402333 0.007897895 -0.18234254 -0.19140896 0.02777782 0.115200914 0.0045802924 -0.019561494 0.046727594 0.11926727 0.015430414 0.2220639 -0.12966911 -0.24080883 0.19577384 -0.08533513 -0.06650931 0.07456113 0.032322336 -0.1357629 0.14770894 -0.23123762 -0.11362445 -0.048709314 0.005519061 0.16321294 -0.0018944201 -0.08433649 -0.105563596 -0.036579628 0.038647965 0.022423148 -0.00709851 -0.15113164 -0.02086156 0.046834428 0.15833916 -0.10161888 0.02717995 -0.073742636 -0.120680474 0.14360785 -0.1805026 -0.16691896 -0.02142216 -0.02676211 0.13473836
20 -0.0108909 -0.2433974 0.011063205 0.024715902 0.045586206 -0.11087079 0.09130983 -0.024091888 0.06276171 0.063847974 -0.13051449 0.13886373 0.07152857 -0.13090967 -0.0030318266 -0.23335445 -0.024338946 -0.11551403 -0.022918575 0.13967335 0.23961735 -0.012131624 0.23575677 0.07212117 0.037342105 -0.033720054 -0.030218704 -0.019052215 0.0004069534 0.14813876 0.029254917 0.11711817 -0.0979985 0.042621516 -0.09482159 -0.07970867 0.07746312 0.09420569 0.017617226 -0.028580233 -0.15779828 0.15667099 0.021938812 0.07592346 -0.09565567 0.14450987 0.010501389 -0.058158293 0.053498108 0.027866272 -0.09676203 0.11667953 0.054925416 0.16035438 -0.15037154 -0.04311111 -0.043860957 -0.008942949 0.0022961888 0.02728982 0.049037486 -0.1068925 -0.019131089 0.11498477 -0.053059243 -0.10978996 -0.0020084376 -0.03365731 0.06335879 -0.056386296 -0.09513018 0.027261546 -0.033622086 -0.01936885 0.053043284 -0.019508794 0.028164411 0.09089394 0.020962648 -0.08229938 -0.15251024 -0.05519546 0.01522638 -0.19645098 -0.12627797 0.118223794 0.04084943 0.0151193375 -0.092814244 0.025898477 0.056489337 0.02798665 0.1942477 -0.13384141 -0.1618964 0.24062653 -0.112764865 0.041960683 0.07631979 -0.05515987 -0.15368658 0.15547952 -0.19748001 -0.09413906 -0.030058613 0.021256452 0.164055 0.025015414 -0.06245516 -0.0831303 -0.035139043 -0.038457137 -0.0008463939 -0.055636745 -0.08124324 -0.037357725 0.020723213 0.11397534 -0.07980561 0.06486481 -0.0668447 -0.13075492 0.07822509 -0.1574389 -0.085434325 0.054648634 -0.055119053 0.09126725
29 -0.006489966 -0.24304147 0.007281413 0.047571145 0.05741216 -0.10645854 0.0956587 -0.05456826 0.056186277 0.07353407 -0.13946655 0.15111741 0.07027731 -0.13468367 -0.023972644 -0.2533518 -0.018914381 -0.12666239 -0.027412908 0.1900257 0.25311407 -0.012056686 0.26290426 0.06927299 0.021324296 -0.043661594 -0.04605601 -0.035025556 -0.01848841 0.17711005 0.034855045 0.1204712 -0.09682399 0.03475595 -0.11687865 -0.07477484 0.08454204 0.10994587 0.008303173 -0.033389386 -0.16552986 0.18383914 0.016813338 0.06795594 -0.07751111 0.16303442 -0.0046996423 -0.0675815 0.029354477 0.022443626 -0.08110216 0.13354614 0.052951757 0.15162826 -0.1421438 -0.035993043 -0.050001357 -0.011466005 0.019023707 0.029513553 0.044461053 -0.12035938 -0.019248711 0.121727996 -0.039318133 -0.15086739 -0.010100013 -0.040334273 0.07468932 -0.037212167 -0.08243232 0.03847323 -0.036656152 -0.0094745485 0.036631122 -0.03852953 0.014873236 0.12724797 0.021208486 -0.04993036 -0.15806124 -0.07044829 0.024741076 -0.22177579 -0.12281309 0.15680061 0.024356166 0.017290533 -0.1271221 0.017039716 0.037868176 0.032396693 0.21097736 -0.14685605 -0.1506829 0.29263416 -0.13917367 0.090399094 0.091743015 -0.10188546 -0.18218447 0.18769489 -0.20665874 -0.10493549 -0.027313396 0.025084905 0.1829247 0.036459435 -0.06643946 -0.0851239 -0.031302806 -0.07316143 -0.012140213 -0.08622673 -0.0651649 -0.048967045 0.0074186926 0.10508719 -0.0809732 0.08748612 -0.070084505 -0.15104975 0.06208676 -0.16179092 -0.06827602 0.08798206 -0.068530664 0.08396793
11 -0.025791917 -0.28211382 0.014388085 -0.018105939 0.042096302 -0.13314372 0.087760195 0.030500038 0.11305123 0.05908426 -0.12945408 0.16175438 0.0735839 -0.14794913 0.04886573 -0.24087432 -0.035763014 -0.13000637 -0.008902868 0.072316244 0.25012895 -0.018123453 0.21422172 0.084948026 0.06816421 -0.04001573 -0.026410734 0.0005641017 0.03020636 0.122739024 0.04642555 0.13789836 -0.11341907 0.053688064 -0.07926119 -0.10573786 0.07565984 0.09227615 0.044963904 -0.017363394 -0.1599189 0.14508884 0.048095673 0.10166455 -0.16157247 0.14215302 0.03583478 -0.046543572 0.11250553 0.05892726 -0.1423888 0.11606869 0.054555114 0.22231385 -0.1963415 -0.06794048 -0.0345772 0.015134657 -0.015595245 0.022223005 0.061200913 -0.11463089 -0.027774828 0.12769173 -0.103476316 -0.048850197 -0.00092203956 -0.03295062 0.0701663 -0.11553549 -0.14140533 0.007716387 -0.041968115 -0.038620487 0.105337955 0.015743643 0.05150862 0.043779735 0.017456021 -0.17948648 -0.18193683 -0.014487184 0.009240259 -0.18024005 -0.17721505 0.047106776 0.100628056 0.00476129 -0.033967644 0.042828787 0.09987456 0.015408612 0.21182698 -0.12422528 -0.21634972 0.19507946 -0.08234846 -0.04398284 0.06958876 0.014750226 -0.12704085 0.15036033 -0.22011626 -0.1049257 -0.04169231 0.0077220597 0.16277905 -0.0002992752 -0.07346324 -0.102001056 -0.03494396 0.02647255 0.011832655 -0.018159317 -0.13294321 -0.027749272 0.03535639 0.14901726 -0.10093191 0.0309706 -0.07059017 -0.1263529 0.13411762 -0.17495549 -0.15011834 -0.010904912 -0.03221565 0.12262926
26 0.010462103 -0.22037739 0.0034467888 0.07579398 0.060422048 -0.088576056 0.1014588 -0.08704518 0.024200846 0.069092244 -0.14422847 0.12756741 0.07109448 -0.1233558 -0.050810993 -0.24209842 -0.005381029 -0.115576915 -0.044076677 0.23021929 0.25045532 -0.0044342936 0.2860597 0.068736896 0.0013294218 -0.04919877 -0.062003832 -0.05406555 -0.049712215 0.19664523 0.029313216 0.111781545 -0.08725978 0.015858948 -0.12940563 -0.062349666 0.08268449 0.10651505 -0.018325321 -0.039349634 -0.16308096 0.18703935 0.0022318857 0.050951093 -0.042638864 0.1681088 -0.021819197 -0.065942384 -0.0054105585 0.008688962 -0.043263245 0.14174089 0.048967157 0.109938756 -0.10470999 -0.029946532 -0.054230027 -0.026532732 0.027498359 0.03185 0.034051284 -0.10849604 -0.005786949 0.117600344 -0.007566958 -0.18203717 -0.008154182 -0.038754746 0.07146208 -0.0058250767 -0.047799636 0.053277794 -0.035239052 -0.0012867418 0.0053731985 -0.06790604 -0.015389712 0.15095803 0.016492607 0.006682371 -0.13391517 -0.08451636 0.02911146 -0.21438327 -0.088510126 0.19276586 -0.019688206 0.029487967 -0.16185449 0.011034504 0.011200152 0.040474363 0.20376758 -0.14464103 -0.11037192 0.3077572 -0.14607391 0.1379024 0.096647575 -0.14266518 -0.18425962 0.18812722 -0.18595867 -0.0968036 -0.018995618 0.031172412 0.1885155 0.05388012 -0.05053547 -0.06857913 -0.034933366 -0.11153594 -0.018992513 -0.106531456 -0.027774591 -0.052717064 -0.0015362252 0.07751391 -0.06282767 0.09999826 -0.06369554 -0.15415284 0.034034044 -0.14954478 -0.029781444 0.12577437 -0.08076404 0.06484849
25 -0.00492043 -0.22612612 0.0043482566 0.057653062 0.050777324 -0.093710616 0.09117178 -0.06771079 0.042107314 0.06746844 -0.13550943 0.12947357 0.065664135 -0.11666385 -0.035907634 -0.23926009 -0.007864866 -0.11642296 -0.031809524 0.20102227 0.23925708 -0.008417568 0.26249415 0.06792173 0.015522343 -0.044971492 -0.046885185 -0.038296137 -0.033101495 0.17663229 0.029515622 0.1103788 -0.08655289 0.025073774 -0.116957806 -0.06281071 0.07560354 0.10933943 -0.004513975 -0.03368316 -0.16171205 0.17874283 0.00936781 0.056837585 -0.058054905 0.15731902 -0.007551742 -0.0599221 0.016112827 0.01272895 -0.06539652 0.13146275 0.052501757 0.12838005 -0.12119267 -0.03449733 -0.049608804 -0.024182916 0.01847543 0.032920666 0.033900227 -0.10491754 -0.008467183 0.11344113 -0.026374174 -0.1584276 -0.009235047 -0.03266887 0.06434151 -0.024510106 -0.06353868 0.041725498 -0.030865083 -0.0041344636 0.018839344 -0.052656263 -0.0014929585 0.13350925 0.02088657 -0.022436932 -0.13735715 -0.07709139 0.02426864 -0.21020955 -0.10236892 0.16417776 0.0044452003 0.020222725 -0.13975798 0.011032688 0.020434532 0.034244496 0.1997922 -0.14473592 -0.1288131 0.28464955 -0.13482606 0.10698983 0.088598534 -0.11181587 -0.17765681 0.18067777 -0.19438644 -0.09682297 -0.020205513 0.028478486 0.17916238 0.044027347 -0.055989943 -0.0790301 -0.03326364 -0.08678188 -0.012053497 -0.09194531 -0.04791451 -0.047962457 0.0059546526 0.0901678 -0.06993267 0.0885812 -0.06341509 -0.14325424 0.04709217 -0.14890105 -0.051370975 0.100435086 -0.0745803 0.07509725
18 -0.023513097 -0.26241612 0.012689127 -0.0149607295 0.043887064 -0.12590836 0.07689448 0.01725026 0.09814098 0.06539701 -0.120091304 0.15452118 0.07366816 -0.14227961 0.033571493 -0.23105821 -0.03202385 -0.118574224 -0.01043734 0.08951716 0.23923641 -0.012507725 0.20636126 0.07815667 0.060777105 -0.026519187 -0.019197965 0.004720478 0.03429433 0.1257054 0.03676272 0.13072498 -0.10768932 0.063658625 -0.080129504 -0.10251189 0.06901964 0.0907891 0.04619775 -0.012988904 -0.15542084 0.14280178 0.036015484 0.094728515 -0.14376174 0.13855636 0.021044273 -0.051892802 0.096906364 0.044715565 -0.1318646 0.102869324 0.057104565 0.2118561 -0.18943615 -0.052809104 -0.03527712 0.0065042805 -0.01526902 0.021294028 0.05830483 -0.11599576 -0.03196509 0.118705235 -0.086139634 -0.05864296 0.00416063 -0.036983892 0.06812739 -0.095502526 -0.13094817 0.009209805 -0.028695062 -0.03587318 0.09345522 0.011191107 0.053847045 0.05614563 0.023497691 -0.15600124 -0.17564875 -0.026482321 0.010469441 -0.18398999 -0.16328777 0.0635072 0.08890152 0.0024106798 -0.044887464 0.03656997 0.08941743 0.01821104 0.20150852 -0.13297036 -0.2081066 0.2023355 -0.09792462 -0.02131897 0.07224399 -0.0036769612 -0.13634071 0.14638948 -0.20930043 -0.097081676 -0.034755934 0.012957684 0.15240662 0.0038010264 -0.07558405 -0.10120165 -0.03557668 0.0042492347 0.0120772235 -0.021576338 -0.11806273 -0.026985232 0.032230664 0.13450818 -0.08817766 0.03443979 -0.06907065 -0.12926395 0.10915694 -0.16228588 -0.12646353 -0.0015591949 -0.038601384 0.108278096
10 -0.015160865 -0.26233074 0.01081483 0.021637026 0.05258576 -0.11273837 0.09494254 -0.022199612 0.078852534 0.06595109 -0.13312702 0.15557563 0.06926162 -0.13690324 0.00085338944 -0.24390282 -0.020611724 -0.12353812 -0.022130646 0.14714444 0.25227454 -0.011831558 0.24400103 0.078958586 0.03875778 -0.039099332 -0.033796355 -0.01823528 0.0024113776 0.15303245 0.03272801 0.124017246 -0.10293261 0.051717397 -0.10518385 -0.08945774 0.08087011 0.10010639 0.022159748 -0.02717355 -0.16798311 0.16375357 0.032799717 0.087967016 -0.10758366 0.15467046 0.013847162 -0.061730336 0.065604776 0.031294804 -0.105906606 0.1245925 0.059135538 0.17916541 -0.16657765 -0.046396397 -0.045547094 -0.006612145 -0.0004479471 0.028821662 0.050720215 -0.117316626 -0.026820842 0.124503024 -0.062200792 -0.10849064 -0.003486661 -0.039526336 0.0667456 -0.07284694 -0.102067396 0.02324841 -0.030995369 -0.021322979 0.06464791 -0.016504804 0.029469969 0.09298659 0.017722216 -0.10076739 -0.16931222 -0.055505116 0.016790532 -0.20079255 -0.14539823 0.11611925 0.0496245 0.010308757 -0.0895177 0.02470728 0.06567923 0.029395666 0.21161373 -0.13916484 -0.17856336 0.25471336 -0.1202569 0.033637267 0.08389518 -0.05292842 -0.16325861 0.16786395 -0.2133929 -0.10370522 -0.033563204 0.018861419 0.1798452 0.028320871 -0.075029515 -0.09244023 -0.031376258 -0.04056268 0.0035078998 -0.057057627 -0.088219 -0.036498506 0.021480523 0.12609002 -0.08957903 0.061701857 -0.070957415 -0.14441557 0.08844715 -0.1632943 -0.09634575 0.046153817 -0.05570062 0.101624064
13 -0.022483217 -0.2754613 0.016871521 -0.017664082 0.04299625 -0.13250645 0.08699623 0.013793647 0.101445906 0.066144206 -0.12733561 0.15588169 0.07583185 -0.1521301 0.036627304 -0.23711574 -0.03609387 -0.124778606 -0.010150696 0.083193846 0.24741185 -0.012547931 0.20562644 0.08176116 0.056171883 -0.03186258 -0.016309358 0.0060461476 0.03417899 0.12861381 0.03720701 0.13597517 -0.114547394 0.060749806 -0.08323926 -0.10641876 0.076261215 0.09624954 0.045300335 -0.018645694 -0.15741806 0.14325234 0.040405918 0.09965344 -0.14897092 0.1430972 0.02774114 -0.052480523 0.098850355 0.0515603 -0.1405374 0.11315928 0.05840024 0.21836148 -0.19836955 -0.061463743 -0.039113145 0.0076893554 -0.011751253 0.02059508 0.061501797 -0.1144249 -0.035855938 0.118845195 -0.09085235 -0.06229082 0.0019179354 -0.039147776 0.06917809 -0.10612273 -0.13645414 0.0076989396 -0.03322002 -0.034838673 0.096203335 0.007425241 0.0501556 0.051676538 0.019595833 -0.16564734 -0.17686832 -0.030732634 0.0071115904 -0.18749295 -0.1683552 0.061486494 0.09081957 0.0016097254 -0.045255333 0.0393792 0.09785882 0.020008842 0.20316552 -0.13615143 -0.21120378 0.20402814 -0.09735222 -0.03145161 0.069695115 0.0019377529 -0.1374236 0.14706889 -0.2185208 -0.10094912 -0.038981643 0.0077677732 0.16401652 0.005903963 -0.077225 -0.105205014 -0.03175159 0.009067749 0.014865583 -0.01752695 -0.12801029 -0.028983813 0.03151562 0.14634538 -0.094148345 0.03474529 -0.07018738 -0.12600742 0.11934791 -0.1672351 -0.13592118 0.005147352 -0.035022587 0.11788472
21 0.0007868194 -0.22644192 0.008147045 0.06938828 0.05345559 -0.092209786 0.10175478 -0.079767294 0.033803888 0.076885186 -0.14491872 0.13732284 0.066911034 -0.12485319 -0.044146586 -0.25064445 -0.009100454 -0.11972249 -0.03908559 0.22105563 0.25030252 -0.009843677 0.2817161 0.06638104 0.011884165 -0.047152836 -0.051436596 -0.04327943 -0.042436432 0.1859359 0.030241916 0.11011453 -0.09045451 0.024635397 -0.12340016 -0.061569106 0.08012912 0.11221806 -0.0058691334 -0.032076426 -0.16883287 0.19354637 0.009224146 0.05594595 -0.04887961 0.16105078 -0.010660371 -0.06962537 0.003079294 0.013323454 -0.049067553 0.13853239 0.057413034 0.11500038 -0.11162643 -0.030046212 -0.060766783 -0.027012704 0.02590554 0.034456056 0.03218131 -0.11114318 -0.0069795693 0.115721785 -0.005227818 -0.1771233 -0.00881432 -0.041919604 0.06891911 -0.020916756 -0.049867153 0.04284904 -0.03271911 -0.0020363783 0.01386619 -0.060600974 -0.002658083 0.14344604 0.018672764 -0.00048698694 -0.13860488 -0.08557702 0.021438856 -0.22269793 -0.10295792 0.18706559 -0.00866302 0.025735151 -0.15202396 0.011427287 0.015736155 0.039774623 0.19763085 -0.14107324 -0.12368976 0.3053729 -0.14704646 0.12881453 0.095252104 -0.13216682 -0.18386836 0.18625496 -0.19312283 -0.10106056 -0.020852232 0.027332073 0.18850575 0.04588331 -0.060894895 -0.08096573 -0.03153439 -0.097742185 -0.022577235 -0.1080383 -0.035967417 -0.046521086 -0.0046167094 0.09154052 -0.07810763 0.108673364 -0.069547884 -0.1556693 0.047261957 -0.15835367 -0.042386185 0.11838377 -0.07225379 0.07183071
22 -0.017107392 -0.28078926 0.011269981 0.0020058237 0.047486626 -0.13092417 0.0932059 0.0014179419 0.09396991 0.06547821 -0.13694234 0.1618334 0.0775192 -0.15167439 0.026609024 -0.2504992 -0.03171823 -0.1316632 -0.012423122 0.11845908 0.2588666 -0.01430239 0.23762956 0.08279159 0.053466324 -0.035998404 -0.03217088 -0.013455184 0.019722559 0.1501597 0.04094662 0.13524848 -0.118235454 0.054838777 -0.097243726 -0.10627156 0.07812736 0.09936 0.03153315 -0.025541369 -0.16757262 0.1575732 0.03532166 0.09967664 -0.13710323 0.15602663 0.019738749 -0.055193443 0.092805624 0.044584956 -0.13084923 0.12261553 0.054916643 0.20830172 -0.18444182 -0.05821389 -0.040253796 0.0070226523 -0.0012174002 0.021427598 0.059067037 -0.11808208 -0.026517926 0.13292634 -0.08344684 -0.08469299 -0.0028048847 -0.034330096 0.07590037 -0.09075652 -0.12838073 0.020248596 -0.0377077 -0.03131498 0.088159926 -0.001359309 0.03812902 0.075873315 0.024053821 -0.14314993 -0.18247217 -0.039263923 0.016523745 -0.20402302 -0.16357934 0.0833984 0.07993298 0.0060934247 -0.06468019 0.035842538 0.08647752 0.022950247 0.21755295 -0.1436938 -0.20661819 0.23689544 -0.10838433 -0.0013091784 0.08335554 -0.026909858 -0.15401903 0.16506307 -0.22179703 -0.10528775 -0.037054654 0.017303616 0.17401637 0.016861184 -0.0766435 -0.10071585 -0.032116003 -0.007933513 0.011516718 -0.035801202 -0.11642224 -0.03302689 0.027221335 0.14049867 -0.09938179 0.050916653 -0.07193017 -0.14082204 0.11387875 -0.17777425 -0.1265145 0.023534032 -0.04212988 0.11629728
27 0.011947339 -0.21601883 0.0027365296 0.07909874 0.056744337 -0.08002049 0.10095419 -0.082711555 0.020157238 0.071960956 -0.14408068 0.12558018 0.06289965 -0.1107736 -0.052502755 -0.24444084 -0.0038561907 -0.11638091 -0.04404569 0.22521059 0.24370983 -0.0073514823 0.28455222 0.06420938 0.004485301 -0.049847905 -0.05928945 -0.047955584 -0.054057706 0.19067444 0.025495533 0.10206003 -0.086718395 0.012463701 -0.11856799 -0.05470327 0.076432765 0.105910115 -0.019464128 -0.039866537 -0.16410145 0.1905261 0.006983553 0.050992955 -0.029950729 0.16143571 -0.0133466795 -0.07025623 -0.011420178 0.01131125 -0.037196763 0.13969567 0.0487073 0.10316549 -0.093738884 -0.030134737 -0.061512668 -0.02661094 0.038655996 0.031527754 0.029250281 -0.10175578 -0.0051349634 0.10651732 0.004017586 -0.18453485 -0.013994245 -0.03348475 0.06770619 -0.004026351 -0.042533405 0.053349756 -0.031631585 -0.003526775 -0.0021610712 -0.072167605 -0.005578709 0.15033704 0.013831039 0.02061039 -0.12846093 -0.09020324 0.024846258 -0.21060924 -0.089379035 0.19627434 -0.015959557 0.028320072 -0.16943866 0.013236397 -0.00019690159 0.03492282 0.19350696 -0.14038706 -0.10904225 0.30910298 -0.14360203 0.13917208 0.09787063 -0.14777261 -0.18523936 0.18741865 -0.17684944 -0.103565454 -0.020628607 0.02887327 0.18915509 0.051322572 -0.056551956 -0.07028838 -0.03131457 -0.112443686 -0.027757386 -0.118780725 -0.019103007 -0.05458281 -0.006467412 0.081078015 -0.07604649 0.109196156 -0.06811648 -0.14853327 0.038784098 -0.152267 -0.03435957 0.13217892 -0.07644579 0.06713022
15 -0.002656132 -0.24154131 0.010934848 0.062320888 0.057469096 -0.09321035 0.10393379 -0.06812633 0.043683488 0.07092564 -0.14279222 0.140697 0.06859171 -0.12594183 -0.032222133 -0.25383997 -0.01496627 -0.12580219 -0.04069224 0.20452148 0.25575542 -0.009363969 0.2803302 0.0688916 0.0170813 -0.045985095 -0.05456278 -0.041729245 -0.0342277 0.18287145 0.027798915 0.119848244 -0.09284071 0.02687718 -0.11904614 -0.069263026 0.080892704 0.11018188 -0.0003335045 -0.031720858 -0.17367205 0.1899663 0.015545121 0.0656073 -0.05992667 0.16514385 -0.010318023 -0.0706297 0.013742008 0.01833823 -0.06503424 0.13922083 0.054238234 0.13454859 -0.12470658 -0.040438313 -0.06335803 -0.023152994 0.027740564 0.031724364 0.042548206 -0.1116108 -0.009091206 0.115641885 -0.01842028 -0.1623723 -0.006244974 -0.037937347 0.07564766 -0.025110565 -0.06219955 0.04200839 -0.03417157 -0.01077735 0.019799484 -0.053996734 0.0067499313 0.13789502 0.014249204 -0.026418 -0.14489709 -0.07643543 0.02429384 -0.22167403 -0.11311822 0.17163779 0.0051656375 0.022892008 -0.14419134 0.020970471 0.025279963 0.038793202 0.20859069 -0.14668515 -0.13991037 0.30300218 -0.13851155 0.11337454 0.09648591 -0.11544578 -0.17693715 0.1867355 -0.20076258 -0.10442089 -0.02470843 0.022662127 0.18952535 0.045289043 -0.06169509 -0.085245386 -0.034275714 -0.088636205 -0.019162387 -0.10278654 -0.04771637 -0.044450942 0.005531929 0.101811595 -0.084036924 0.101129055 -0.06707564 -0.15676086 0.06118617 -0.15753894 -0.06261891 0.10455555 -0.06947656 0.083827406
19 0.0054127453 -0.21270868 0.010187656 0.064751126 0.05205813 -0.083346024 0.09124043 -0.07362698 0.035072155 0.06826613 -0.13750379 0.13123459 0.060971033 -0.11235019 -0.041723993 -0.23312686 -0.011578004 -0.11589713 -0.034854278 0.2103876 0.23244607 -0.011888648 0.26270983 0.06211969 0.011448661 -0.03870437 -0.051155124 -0.03993929 -0.039870277 0.17280652 0.025713954 0.10678806 -0.08364828 0.01903327 -0.115359865 -0.058663294 0.07193182 0.105921246 -0.004032368 -0.029457292 -0.15708064 0.17792805 0.011135713 0.054880287 -0.04280216 0.15250048 -0.009304486 -0.06818344 0.0010830729 0.014479288 -0.05292656 0.12763633 0.047877103 0.110866845 -0.10170896 -0.027760312 -0.059735287 -0.01977564 0.029934311 0.026633345 0.03264894 -0.108981706 -0.0039104493 0.10976925 -0.01057866 -0.16658066 -0.005681049 -0.03667314 0.06484185 -0.019947525 -0.05063352 0.0430491 -0.029731791 -0.00408138 0.010888382 -0.059674196 0.0035407445 0.13903196 0.013401286 -0.010265046 -0.13165982 -0.080205195 0.023397923 -0.21102706 -0.09927266 0.17486368 0.00010444036 0.026251242 -0.14607665 0.01162323 0.012664989 0.038109038 0.19269215 -0.13391383 -0.11969196 0.2901002 -0.13693708 0.11917555 0.09023725 -0.12564749 -0.16867732 0.17886297 -0.18311259 -0.099067666 -0.023022417 0.025692314 0.17544279 0.04547487 -0.057545125 -0.07583191 -0.03479167 -0.09457113 -0.018929873 -0.10340181 -0.029494451 -0.04372751 0.0023080157 0.08955502 -0.075796135 0.099848 -0.065212876 -0.14699478 0.04124118 -0.14803165 -0.046507962 0.10825706 -0.07492164 0.06828318
17 -0.037213624 -0.31934136 0.018376825 -0.050310478 0.033578206 -0.15987508 0.094754905 0.07033313 0.15178226 0.06709038 -0.1281819 0.18753023 0.08643958 -0.16936855 0.07860557 -0.24761423 -0.045155186 -0.14834397 0.0010080005 0.031709336 0.26433232 -0.025719043 0.20375247 0.09330753 0.098235816 -0.033790845 -0.01767135 0.017792387 0.06563454 0.11388029 0.055309795 0.15752575 -0.12848067 0.073457405 -0.07470983 -0.13741863 0.07840681 0.093108684 0.068325736 -0.014075343 -0.17300288 0.130944 0.058948368 0.12817429 -0.21694212 0.13904329 0.052784592 -0.041594 0.16255835 0.07844265 -0.18943089 0.112201035 0.05779468 0.27351707 -0.23913968 -0.08348025 -0.033370294 0.03186789 -0.026102627 0.014843513 0.07735499 -0.12447995 -0.040498745 0.1380998 -0.14313143 -0.0057736235 0.0045418944 -0.033192243 0.07287012 -0.15548205 -0.18930846 -0.0054176403 -0.044456024 -0.05413875 0.14629734 0.049429607 0.070026174 0.011988234 0.023531176 -0.25892878 -0.21245739 0.0064676115 0.010867465 -0.17393306 -0.21976973 -0.00043474114 0.14729656 -0.0065246564 0.012207548 0.053107437 0.13638754 0.012354717 0.22905496 -0.12598687 -0.26924956 0.17118157 -0.06379805 -0.10647133 0.069017924 0.06708532 -0.11871713 0.14303787 -0.24760282 -0.111156605 -0.04818391 0.0022059495 0.16113113 -0.017621718 -0.08868811 -0.11053799 -0.034664392 0.07216494 0.03449365 0.02027175 -0.17723353 -0.018096473 0.051917464 0.18069237 -0.11525419 0.0042718975 -0.0724097 -0.11809135 0.17167568 -0.18338117 -0.20098183 -0.059635155 -0.013992027 0.15018691
16 0.0041443 -0.22366476 0.00810239 0.08006181 0.05838508 -0.088156976 0.10422876 -0.083404236 0.029226067 0.07291147 -0.14867838 0.1352671 0.063205995 -0.11653495 -0.04645088 -0.2543998 -0.010929794 -0.123248786 -0.04687907 0.2269844 0.24962452 -0.00781967 0.2920812 0.06323183 0.010569586 -0.04677956 -0.054307498 -0.04885659 -0.050509233 0.19087511 0.023253487 0.114215694 -0.091659695 0.017792867 -0.122681454 -0.05776645 0.08583465 0.10846915 -0.016630132 -0.038671065 -0.17459528 0.20126612 0.013231032 0.057795897 -0.038747117 0.16442722 -0.011650348 -0.07050245 -0.008777563 0.016704867 -0.046798635 0.14428604 0.05651294 0.11597169 -0.106323525 -0.031461958 -0.06489754 -0.025610054 0.0331719 0.02807188 0.036675304 -0.11878044 -0.0066299695 0.11196158 -0.0016465122 -0.18912327 -0.008507875 -0.035257403 0.0713334 -0.013352215 -0.04532536 0.046529453 -0.03299301 -0.003120928 0.008914118 -0.068086036 0.0008321678 0.15184242 0.015883103 0.008914979 -0.13167432 -0.09352555 0.026475433 -0.22756344 -0.09589315 0.2032518 -0.012516764 0.03286437 -0.16521244 0.014619089 0.00466206 0.040664583 0.20054689 -0.14664651 -0.12036756 0.3231538 -0.14862895 0.1387389 0.098474376 -0.14637277 -0.1877594 0.19696686 -0.19076286 -0.107808895 -0.027095515 0.026086682 0.19416086 0.052733008 -0.05697853 -0.07878746 -0.038262967 -0.10780016 -0.029078402 -0.11681718 -0.027015664 -0.0516684 -0.0042574294 0.09332388 -0.078748904 0.10982208 -0.07074561 -0.15799959 0.04110016 -0.16158976 -0.037476875 0.12920935 -0.081600145 0.07742202
23 0.0059934594 -0.2208973 0.0012287993 0.07244039 0.0564935 -0.086696066 0.09977878 -0.0689775 0.038533576 0.06760961 -0.1430466 0.13394652 0.06673814 -0.12465001 -0.041623037 -0.2406492 -0.01098889 -0.113735385 -0.03936188 0.21542232 0.2431403 -0.01022918 0.27310345 0.068115376 0.01311926 -0.04806539 -0.059065655 -0.051338688 -0.0462514 0.18705323 0.027385017 0.11372048 -0.09169771 0.020669831 -0.12195074 -0.06611961 0.080580376 0.102388635 -0.01630656 -0.034184307 -0.16599613 0.18744734 0.013557703 0.058415435 -0.04816074 0.15824229 -0.0121008195 -0.06470445 0.0030344136 0.013910228 -0.053406656 0.13945414 0.054460917 0.11526912 -0.10950223 -0.037551668 -0.060248613 -0.023790842 0.031129096 0.024899252 0.03690648 -0.10979147 -0.0047500283 0.11493504 -0.008600429 -0.1723892 -0.004932795 -0.03248972 0.07183394 -0.013405788 -0.052508485 0.04776527 -0.031013142 -0.003256741 0.008925779 -0.058389526 -0.00082021434 0.14181764 0.019854635 -0.0058571147 -0.13039334 -0.08259141 0.028094897 -0.21433996 -0.10103606 0.18114595 -0.0071991473 0.029171476 -0.15396717 0.015054198 0.018419003 0.03938806 0.19683214 -0.1408163 -0.12620664 0.29804432 -0.13717411 0.117565855 0.093214914 -0.123094775 -0.18031289 0.18145873 -0.18482488 -0.104016356 -0.025937112 0.022224091 0.18361163 0.046618957 -0.05510036 -0.0759962 -0.037040472 -0.09873043 -0.021156121 -0.11035548 -0.038514473 -0.050135225 -0.0015552143 0.09211544 -0.077180356 0.103088036 -0.06567135 -0.14975001 0.048835106 -0.15877019 -0.046748515 0.11129957 -0.075347915 0.07590385
12 -0.020416845 -0.2727953 0.013739877 0.0071571674 0.046456486 -0.12325223 0.09052672 -0.013178978 0.0805879 0.06999201 -0.12878689 0.15863486 0.07245822 -0.14132208 0.014202973 -0.24182458 -0.030238923 -0.12504539 -0.014633831 0.12188958 0.25326613 -0.009270197 0.237486 0.07683368 0.044463154 -0.039537188 -0.028770728 -0.010281012 0.01338182 0.14957933 0.039938208 0.13288076 -0.11399457 0.05389638 -0.096011505 -0.091373906 0.0767402 0.10176348 0.031244978 -0.022748897 -0.16382377 0.16010083 0.034680367 0.087081686 -0.12503688 0.1529351 0.017741688 -0.05935259 0.07328833 0.038783036 -0.11727186 0.12164997 0.054836307 0.19041349 -0.17879255 -0.05549758 -0.041372094 0.0015325479 -0.0018960267 0.027515115 0.055292446 -0.113249294 -0.030121401 0.12447299 -0.07676286 -0.09321811 0.0018010748 -0.037445623 0.07213419 -0.07672781 -0.1111708 0.022407252 -0.0340195 -0.023638979 0.07340059 -0.009050107 0.040122613 0.083645225 0.02213719 -0.11766665 -0.17191726 -0.042336572 0.010992094 -0.19928584 -0.152251 0.10060116 0.06335807 0.009341271 -0.07719661 0.026849397 0.07270182 0.02985005 0.20749117 -0.14066432 -0.1891351 0.23642966 -0.108353786 0.010987166 0.080306634 -0.037086945 -0.15776639 0.15961981 -0.21364327 -0.10443293 -0.03429583 0.01240033 0.1717808 0.018381562 -0.068774536 -0.09808143 -0.03795802 -0.020495659 0.0058755707 -0.041280307 -0.10174285 -0.030283721 0.024975413 0.13292862 -0.09399963 0.052148428 -0.07249375 -0.13880597 0.099967964 -0.16276449 -0.11210215 0.034113467 -0.05027239 0.104634285
